amazing -0.013117 0.42197 -0.26317 0.34218 0.99922 -0.21694 -0.08976 -0.19715 0.32896 0.95953 -0.4646 0.10258 -0.53764 -0.0594 0.6885 -0.72556 0.57731 0.39767 -0.98963 -0.48204 -0.40209 0.90999 0.14151 -0.64745 1.5189 -0.06979 -1.6931 -0.07218 0.8199 -0.59112 1.8197 0.62039 0.4555 -0.19383 -0.12375 0.44672 0.0091402 0.58273 -0.27283 -0.65483 -0.19586 -0.28047 -0.52825 -0.22604 -0.066117 0.2579 0.50016 -0.12294 -0.2093 0.66911
amazingly 0.26426 -0.69826 -0.2625 -0.49188 0.60582 -0.3068 -0.13992 -0.050011 -0.23533 1.0778 -0.1686 -0.20362 0.00095144 0.40121 -0.096934 -0.22654 0.56142 0.3058 0.089804 -0.44375 -1.1013 0.63303 0.11877 -0.049807 0.93736 0.19771 -0.38621 0.75515 0.73106 0.14232 1.0952 -0.31209 0.92603 -0.092328 0.44765 0.33177 -0.030771 1.4807 -0.50202 -0.7422 -0.13928 -0.13812 0.020728 0.50109 0.096577 -0.050852 0.095128 -0.0075595 0.16116 0.83459
magnificent 0.64426 1.0996 -0.94007 -0.29916 0.86498 -0.6391 -0.19035 -0.36342 -0.21024 0.52788 -0.89099 0.013853 0.029 -0.069182 -0.12027 -0.46932 1.1381 0.19763 -0.76225 -0.20569 -0.51841 0.20197 -1.0452 -1.1026 0.84081 0.059926 -1.1205 0.59775 0.4142 -0.46157 1.3835 -0.0033378 0.24334 0.20608 0.081621 0.81 0.47666 0.75487 -0.68896 -0.072831 -0.12578 -0.30317 -0.20608 0.16999 -0.57656 0.60557 -0.20296 -0.70991 0.033442 -0.71534
magnificently 0.35214 -1.2147 -0.91376 -1.2785 0.046076 -0.32618 0.26187 0.056496 -0.4352 0.49093 -0.26728 0.33866 -0.29692 0.40908 -0.4611 -0.26538 0.49899 0.17957 0.11013 -0.20526 -0.41601 0.47061 0.3132 -0.67138 0.5109 0.20834 -0.35913 0.90356 0.21969 -0.58319 0.10496 -0.13261 0.589 0.15656 0.016908 0.68609 0.56049 1.1438 -0.98841 -0.091941 -0.19629 -0.26923 -0.12093 0.038036 -0.2858 0.16591 -0.27751 -0.48656 -0.57126 -0.12124
one 0.31474 0.41662 0.1348 0.15854 0.88812 0.43317 -0.55916 0.030476 -0.14623 -0.14273 -0.17949 -0.17343 -0.49264 0.26775 0.48799 -0.29537 0.18485 0.14937 -0.75009 -0.35651 -0.23699 0.1849 0.17237 0.23611 0.14077 -1.9031 -0.65353 -0.022539 0.10383 -0.43705 3.781 -0.044077 -0.046643 0.027274 0.51883 0.13353 0.23231 0.25599 0.060888 -0.065618 -0.15556 0.30818 -0.093586 0.33296 -0.14613 0.016332 -0.24251 -0.20526 0.07009 -0.11568
two 0.58289 0.36258 0.34065 0.36416 0.34337 0.79387 -0.9362 0.11432 -0.63005 -0.55524 -0.28706 -0.47143 -0.75673 0.63868 0.22479 -0.64652 -0.074314 -0.34903 -0.97285 -0.53981 0.015171 0.24479 0.62661 0.070447 -0.51629 -1.2004 0.3122 -0.44053 -0.29869 -0.56326 4.022 0.38463 -0.028468 0.068716 1.0746 0.48309 0.2475 0.22802 -0.35743 0.40392 -0.54738 0.15244 0.41 0.15702 0.0077935 -0.015106 -0.28653 -0.16158 -0.35169 -0.82555
three 0.40545 0.43805 0.36237 0.25683 0.38254 0.68255 -0.97853 0.12741 -0.46129 -0.54809 -0.35384 -0.56697 -0.65756 0.50184 0.53248 -0.77956 -0.089944 -0.37572 -1.1097 -0.30734 -0.022657 0.11632 0.67704 -0.051499 -0.59719 -1.02 0.24289 -0.60216 -0.35183 -0.54053 3.9844 0.41521 0.040419 0.26909 1.1193 0.52924 0.37308 0.28924 -0.14714 0.23566 -0.72709 0.053276 0.45373 0.20374 -0.13384 0.015313 -0.22037 -0.15662 -0.30289 -0.77536
cat 0.45281 -0.50108 -0.53714 -0.015697 0.22191 0.54602 -0.67301 -0.6891 0.63493 -0.19726 0.33685 0.7735 0.90094 0.38488 0.38367 0.2657 -0.08057 0.61089 -1.2894 -0.22313 -0.61578 0.21697 0.35614 0.44499 0.60885 -1.1633 -1.1579 0.36118 0.10466 -0.78325 1.4352 0.18629 -0.26112 0.83275 -0.23123 0.32481 0.14485 -0.44552 0.33497 -0.95946 -0.097479 0.48138 -0.43352 0.69455 0.91043 -0.28173 0.41637 -1.2609 0.71278 0.23782
dog 0.11008 -0.38781 -0.57615 -0.27714 0.70521 0.53994 -1.0786 -0.40146 1.1504 -0.5678 0.0038977 0.52878 0.64561 0.47262 0.48549 -0.18407 0.1801 0.91397 -1.1979 -0.5778 -0.37985 0.33606 0.772 0.75555 0.45506 -1.7671 -1.0503 0.42566 0.41893 -0.68327 1.5673 0.27685 -0.61708 0.64638 -0.076996 0.37118 0.1308 -0.45137 0.25398 -0.74392 -0.086199 0.24068 -0.64819 0.83549 1.2502 -0.51379 0.04224 -0.88118 0.7158 0.38519
